{"layers.1.weight": [[-0.2849575877189636, 0.5902641415596008, -0.2900877892971039, -0.5354912281036377, -0.38400375843048096, -0.13291355967521667, 0.06707276403903961, 0.33499395847320557], [-0.0936252698302269, -0.27103593945503235, -0.11277978867292404, -0.32278287410736084, -0.34944823384284973, -0.2552361488342285, -0.4951072633266449, 0.12926799058914185], [0.4995079040527344, -0.1959410160779953, -0.5599110722541809, -0.5135331153869629, 0.05012112483382225, 0.36017176508903503, -0.37963318824768066, 0.05566181614995003], [-0.06611032783985138, 0.3297470808029175, 0.06685233116149902, -0.02121952548623085, -0.42382657527923584, 0.3585255742073059, -0.15356233716011047, -0.06132550910115242], [-0.21526242792606354, -0.38561952114105225, -0.11653700470924377, -0.21042774617671967, 0.0854228287935257, 0.03290143981575966, 0.2884269654750824, 0.33718177676200867], [-0.29141372442245483, 0.14219126105308533, 0.36516788601875305, -0.02492772601544857, 0.0724162831902504, -0.20466722548007965, 0.48687154054641724, 0.5183236598968506], [0.10413190722465515, 0.36354830861091614, 0.5190569758415222, 0.05528877675533295, 0.12396976351737976, -0.08283663541078568, 0.3993450403213501, 0.190682515501976], [-0.2729704976081848, -0.0429040789604187, 0.049448996782302856, 0.17250755429267883, -0.007814845070242882, -0.12156391888856888, 0.017141863703727722, 0.39659491181373596], [0.31487762928009033, -0.4485846757888794, -0.312523752450943, 0.19162532687187195, -0.1462889313697815, 0.22143441438674927, -0.6395351886749268, -0.49910768866539], [-0.19861379265785217, 0.6856296062469482, 0.20194020867347717, 0.478522926568985, 0.20107953250408173, -0.14304721355438232, -0.10669589787721634, 0.20004968345165253], [-0.7050327062606812, -0.027846794575452805, -0.05683775991201401, -0.6520766019821167, 0.358151376247406, 0.2587919235229492, -0.3715571165084839, -0.4691767394542694], [0.10932809859514236, -0.5987743139266968, -0.22359278798103333, -0.030683252960443497, -0.16437628865242004, -0.034207794815301895, -0.7148628830909729, -0.5982714891433716], [-0.16500717401504517, 0.4243994951248169, 0.06290661543607712, 0.13509982824325562, 0.37805044651031494, -0.09103181213140488, 0.16089124977588654, 0.23360449075698853], [-0.34018203616142273, -0.1979358196258545, 0.018965166062116623, -0.44611823558807373, -0.22913117706775665, -0.12797653675079346, -0.04189914092421532, 0.48417627811431885], [-0.11868570744991302, 0.6807215809822083, -0.028851548209786415, -0.007629246450960636, -0.5614792108535767, 0.4237230122089386, -0.2662266790866852, -0.19505761563777924], [0.003747910726815462, -0.3612910807132721, -0.1885012984275818, 0.6334956884384155, -0.5691565871238708, -0.08320055902004242, -0.41612493991851807, -0.41476520895957947], [0.25487008690834045, 0.006507614627480507, 0.16011181473731995, -0.15778867900371552, 0.11931580305099487, 0.44037872552871704, 0.41243043541908264, -0.019022813066840172], [-0.35017311573028564, 0.3387819826602936, 0.39969339966773987, 0.3736821711063385, 0.0792955756187439, -0.09546694904565811, 0.5078952312469482, 0.31057411432266235], [0.037674449384212494, 0.14135776460170746, 0.42157137393951416, -0.4009306728839874, 0.20743465423583984, 0.07648579031229019, -0.22754424810409546, -0.16349957883358002], [-0.4884263575077057, 0.581929087638855, 0.2611079514026642, 0.06566949933767319, -0.10487157851457596, -0.47879093885421753, -0.032706115394830704, 0.1903325617313385], [0.22803309559822083, -0.4582265317440033, -0.6176610589027405, -0.5444391369819641, -0.20591790974140167, 0.07254616171121597, -0.5312721729278564, -0.149516299366951], [-0.7656238675117493, -0.4334746301174164, -0.06531066447496414, -0.057510681450366974, 0.06552406400442123, -0.03781931474804878, -0.7199587821960449, -0.07422847300767899], [-0.34294217824935913, 0.19882817566394806, 0.5240076184272766, 0.08156496286392212, -0.39609211683273315, 0.16085219383239746, 0.5357499718666077, 0.4323136806488037], [-0.17053112387657166, 0.5056658983230591, 0.2333623170852661, 0.2957596778869629, -0.21655145287513733, -0.14985081553459167, 0.27654048800468445, 0.4651859700679779], [-0.01296184491366148, -0.3721827268600464, -0.5783041715621948, -0.32940298318862915, -0.5116149187088013, 0.2084573656320572, -0.5737577676773071, -0.32421720027923584], [-0.30601444840431213, 0.614531934261322, 0.005297102965414524, 0.04219330474734306, -0.18903514742851257, -0.022329650819301605, 0.18853338062763214, 0.4559955298900604], [0.08937401324510574, 0.46019789576530457, -0.14641471207141876, 0.08625767379999161, -0.37608179450035095, -0.5406204462051392, -0.11476194113492966, 0.08468279987573624], [-0.11024149507284164, -0.5824877619743347, -0.07339382916688919, -0.271994411945343, -0.14251674711704254, 0.17692449688911438, -0.1806875467300415, -0.3479037284851074], [0.09741529822349548, 0.5609004497528076, -0.2831968367099762, 0.3249579966068268, 0.1878618597984314, 0.22358548641204834, -0.1460564285516739, 0.20350800454616547], [-0.31320345401763916, 0.7076439261436462, 0.12995722889900208, 0.17665907740592957, -0.21543344855308533, 0.023210089653730392, -0.07279304414987564, 0.3109789192676544], [0.40208709239959717, -0.03045608103275299, -0.48526573181152344, 0.036560170352458954, 0.41868042945861816, -0.1891656368970871, -0.07299733906984329, -0.5787061452865601], [-0.3603622615337372, 0.08963759988546371, 0.12010442465543747, 0.322059690952301, -0.18054436147212982, -0.10115676373243332, 0.01386180892586708, 0.08768652379512787]], "layers.1.bias": [0.06608632206916809, 0.46113529801368713, 0.059026315808296204, -0.5609105825424194, -0.2803661525249481, -0.1365152895450592, -0.18414433300495148, -0.04193532466888428, 0.5044365525245667, 0.23921139538288116, -0.4476042687892914, 0.4749195873737335, -0.04196356609463692, -0.25777000188827515, 0.16874133050441742, 0.1051146537065506, -0.6543610692024231, -0.2560034990310669, -0.48700764775276184, 0.06898801028728485, 0.6676669120788574, 0.20528215169906616, -0.4204079806804657, 0.30611124634742737, 0.3626294732093811, 0.03357081115245819, 0.11131290346384048, 0.6730900406837463, 0.3326972723007202, 0.5846642255783081, -0.20993570983409882, -0.23046837747097015], "output.weight": [[-0.4207679033279419, 0.2846237123012543, 0.12725724279880524, -0.2600131928920746, 0.37222644686698914, 0.3401997685432434, -0.33107343316078186, 0.23726390302181244, 0.46995672583580017, -0.49318012595176697, -0.27520525455474854, 0.30375346541404724, 0.2142014056444168, 0.32059475779533386, -0.4541107416152954, 0.3785277307033539, 0.3519647717475891, -0.1953630894422531, 0.3778991401195526, -0.2868300974369049, 0.4211450219154358, 0.31401577591896057, 0.03515123575925827, -0.39011067152023315, 0.40785685181617737, -0.47121119499206543, -0.3194212317466736, 0.4806821644306183, -0.4704507291316986, -0.3634468615055084, -0.2735151946544647, 0.33288270235061646], [0.3951093852519989, -0.27041199803352356, -0.3738938271999359, 0.3336915671825409, -0.1939229518175125, -0.1845511794090271, 0.39521679282188416, -0.32254451513290405, -0.26515012979507446, 0.2755850553512573, 0.20113177597522736, -0.5152099132537842, -0.12313655018806458, -0.17662155628204346, 0.2400893121957779, -0.26863524317741394, -0.18375264108181, 0.2408166527748108, -0.19389356672763824, 0.49908339977264404, -0.39169904589653015, -0.39830705523490906, -0.034928254783153534, 0.4619218707084656, -0.45284178853034973, 0.5656351447105408, 0.47193336486816406, -0.26658865809440613, 0.26734668016433716, 0.4159073829650879, 0.2846408188343048, -0.18090146780014038]], "output.bias": [0.3193276822566986, -0.28231555223464966]}