{"layers.1.weight": [[0.3091244399547577, -0.1546630859375, -0.5597133636474609, -0.4962793290615082, 0.2389073520898819, -0.3077080547809601, -0.34267285466194153, -0.1642371267080307, -0.36113935708999634, -0.28230634331703186, -0.3924184739589691, -0.3707330822944641, -0.11432693153619766, -0.5097994208335876, -0.47500842809677124, -0.30841535329818726, -0.24982205033302307, -0.21877650916576385, -0.4962945282459259, 0.26612353324890137, 0.1705392599105835, -0.14488908648490906], [-0.37333887815475464, 0.5568152070045471, -0.1182929277420044, 0.25989222526550293, -0.1463429480791092, -0.408987820148468, 0.24634097516536713, 0.17004786431789398, 0.07489228993654251, 0.05089494213461876, 0.15115733444690704, 0.15356332063674927, 0.22765161097049713, 0.07704984396696091, -0.37757742404937744, 0.1236061304807663, 0.05645822361111641, -0.08695697784423828, 0.2624918222427368, -0.17525829374790192, -0.3046974539756775, 0.1541444957256317], [0.07762748003005981, 0.2898721694946289, -0.2239849865436554, 0.040621645748615265, 0.15039171278476715, -0.315472275018692, -0.03480394557118416, 0.4623089134693146, 0.24381932616233826, -0.23689024150371552, 0.029392095282673836, -0.29122549295425415, -0.311025470495224, 0.17413268983364105, -0.5443182587623596, 0.32959166169166565, 0.05040023475885391, -0.2429301142692566, -0.1983480304479599, -0.15344497561454773, -0.21981628239154816, 0.11321655660867691], [-0.0383627749979496, 0.4212096631526947, -0.159467875957489, -0.19736480712890625, 0.213609516620636, -0.04949634522199631, 0.03769153729081154, -0.16430287063121796, -0.022121641784906387, -0.2301836609840393, -0.2661821246147156, 0.0039811888709664345, 0.2123158574104309, -0.09089591354131699, -0.6011649370193481, 0.0056585222482681274, -0.23730020225048065, -0.1975851207971573, -0.0012579901376739144, 0.13998588919639587, 0.2699729800224304, 0.18036812543869019], [-0.15184490382671356, 0.19594287872314453, -0.09062804281711578, 0.4064132869243622, -0.16120940446853638, -0.15642353892326355, -0.018175730481743813, 0.21673814952373505, 0.4641306698322296, 0.25008898973464966, -0.1806761473417282, 0.11764355003833771, -0.1857953518629074, 0.4303044080734253, -0.41896185278892517, 0.12301275134086609, 0.01760042831301689, -0.22860468924045563, 0.15862953662872314, -0.5171568393707275, -0.22806298732757568, 0.3371947407722473], [-0.3676719665527344, 0.5206683874130249, 0.07832572609186172, 0.43004924058914185, -0.18255817890167236, 0.13586652278900146, 0.3242926001548767, 0.28228268027305603, 0.21423062682151794, -0.0718940943479538, 0.010106712579727173, 0.10964440554380417, 0.11671231687068939, 0.2930585443973541, -0.25582224130630493, 0.059442926198244095, 0.0020602422300726175, 0.23372015357017517, 0.21413268148899078, -0.24650898575782776, 0.1182689443230629, 0.13571536540985107], [-0.16528217494487762, 0.3606555163860321, 0.07067074626684189, -0.33082717657089233, -0.29102951288223267, 0.07227783650159836, 0.24699686467647552, -0.1260555237531662, -0.018443696200847626, -0.204480841755867, -0.16952958703041077, -0.03768780082464218, 0.25948366522789, -0.029053429141640663, 0.07645578682422638, -0.00012469303328543901, -0.4549805819988251, -0.005445093847811222, -0.12963049113750458, -0.01977202668786049, -0.0373951755464077, -0.1761174350976944], [0.1954890936613083, -0.6153947710990906, -0.22247536480426788, -0.4221339225769043, -0.22425316274166107, -0.29950258135795593, 0.08979220688343048, -0.32156139612197876, -0.5400568842887878, -0.33435961604118347, -0.16366355121135712, -0.297762006521225, -0.18190939724445343, -0.23520784080028534, -0.5048917531967163, -0.37385550141334534, -0.08564858883619308, -0.11993882805109024, -0.07566410303115845, 0.06474995613098145, -0.5098139643669128, 0.42806974053382874], [-0.23077520728111267, 0.2764081656932831, -0.17134322226047516, 0.038450635969638824, 0.1202155128121376, -0.38220125436782837, -0.08725833147764206, 0.38463926315307617, 0.43544161319732666, -0.13393548130989075, 0.16255196928977966, -0.2927154302597046, -0.520950436592102, 0.2267032265663147, -0.15485095977783203, -0.013992754742503166, 0.03726395219564438, -0.33631375432014465, 0.145956352353096, -0.46207961440086365, 0.11165393143892288, -0.17046843469142914], [0.0890749841928482, -0.3578489422798157, 0.008441166952252388, -0.18498589098453522, 0.13769620656967163, -0.3830384612083435, -0.4490658640861511, -0.16714271903038025, -0.4001465439796448, -0.12784478068351746, -0.22187800705432892, -0.26886460185050964, 0.35101863741874695, -0.38024675846099854, 0.3570769727230072, -0.37661212682724, -0.31175142526626587, -0.1976647824048996, -0.4790780544281006, 0.19810117781162262, 0.5362781286239624, -0.5159793496131897], [-0.06326694786548615, 0.6098427176475525, -0.1406916230916977, 0.2152707874774933, 0.07339109480381012, 0.1583898663520813, 0.2382524460554123, 0.12460577487945557, 0.07267551124095917, -0.1847822070121765, 0.0482906736433506, -0.10551027953624725, -0.012930196709930897, -0.028115741908550262, -0.2127433568239212, -0.33416199684143066, 0.004160938784480095, 0.07324909418821335, 0.12594082951545715, -0.031607486307621, -0.2931261360645294, -0.11056869477033615], [0.06342422217130661, -0.4054354131221771, -0.061711184680461884, -0.5140575170516968, 0.21254052221775055, -0.2664593756198883, 0.22827787697315216, -0.2731856405735016, -0.4375210106372833, -0.19930528104305267, 0.1948661208152771, -0.3753837049007416, 0.05975224822759628, -0.41929471492767334, -0.5115023255348206, -0.25618189573287964, -0.3181009590625763, -0.049562498927116394, -0.3851720690727234, 0.17420488595962524, 0.2014593929052353, -0.20097985863685608], [0.24541349709033966, -0.47004956007003784, -0.35231542587280273, -0.2551472783088684, 0.3674542009830475, -0.05016770958900452, -0.17872200906276703, -0.40527471899986267, -0.5105387568473816, -0.20698708295822144, -0.3440423011779785, -0.534528911113739, 0.3125852048397064, -0.4707152247428894, -0.325218141078949, -0.2929285764694214, -0.20925579965114594, 0.09483058005571365, -0.44070717692375183, 0.13514696061611176, 0.36614301800727844, -0.08981406688690186], [0.20394635200500488, 0.44447916746139526, -0.3169136047363281, 0.26805874705314636, 0.03602728247642517, -0.1493702530860901, -0.07850322872400284, 0.28647205233573914, 0.217654287815094, -0.15571855008602142, 0.12448836117982864, 0.08503851294517517, -0.23936152458190918, 0.23527571558952332, -0.4578419327735901, 0.13348722457885742, 0.04303562268614769, -0.22598481178283691, 0.28674960136413574, -0.4227588474750519, -0.32187649607658386, -0.08034981787204742], [-0.012544309720396996, 0.34917229413986206, -0.44931769371032715, 0.2602763772010803, -0.20425455272197723, -0.31921812891960144, 0.10294370353221893, 0.44889694452285767, 0.20074576139450073, -0.006842079106718302, 0.2092498242855072, -0.10419811308383942, -0.2850239872932434, 0.34054428339004517, -0.45110446214675903, 0.2536061406135559, 0.4095887541770935, -0.07259061932563782, 0.39134153723716736, -0.2637266516685486, -0.2582434117794037, 0.240645632147789], [0.15103891491889954, 0.20262540876865387, -0.12542468309402466, 0.19421839714050293, 0.12766648828983307, -0.19050133228302002, -0.08800007402896881, 0.5505546927452087, 0.5319039821624756, -0.09234967082738876, 0.03677736222743988, -0.3638700246810913, -0.18239620327949524, -0.005415185820311308, -0.49376392364501953, -0.06730718165636063, 0.07908529788255692, -0.15500223636627197, -0.2869165241718292, -0.2620864808559418, -0.4447188079357147, -0.11135372519493103], [-0.04556412249803543, -0.3074091970920563, -0.14703255891799927, -0.24261349439620972, 0.21994732320308685, -0.13291658461093903, -0.48069897294044495, -0.21561813354492188, -0.47752201557159424, -0.47727903723716736, -0.43651634454727173, 0.006033528130501509, 0.2762216329574585, -0.12033207714557648, 0.3823988735675812, -0.48401176929473877, -0.3033798336982727, -0.11878297477960587, -0.4553496539592743, 0.30852580070495605, 0.2089882791042328, -0.39239293336868286], [-0.4965319335460663, -0.4879258871078491, 0.1978341042995453, -0.15759672224521637, 0.28550291061401367, -0.14895352721214294, 0.1892368644475937, -0.379106730222702, -0.2236156165599823, -0.1543685346841812, -0.2237989753484726, 0.04917861893773079, 0.343888521194458, -0.16377419233322144, 0.1971885710954666, -0.18267148733139038, -0.2848503291606903, -0.3233960270881653, -0.36905303597450256, 0.11149446666240692, 0.19733098149299622, -0.10386279970407486], [0.35181573033332825, -0.12107563763856888, -0.4657457172870636, -0.16224658489227295, 0.454341858625412, -0.35160937905311584, -0.30092373490333557, -0.1331811398267746, -0.2459428906440735, -0.5031188726425171, -0.12994426488876343, -0.15400654077529907, 0.1764708161354065, -0.1945575475692749, -0.4201945662498474, -0.2999178171157837, -0.14886659383773804, -0.3723844885826111, -0.47690513730049133, 0.27846914529800415, 0.3515433669090271, -0.32361412048339844], [0.3586587905883789, -0.12922830879688263, 0.04354390501976013, -0.4703487753868103, 0.34126222133636475, -0.2243272066116333, -0.2354639321565628, -0.5377869009971619, -0.37901201844215393, -0.49087050557136536, -0.4506838023662567, -0.24602364003658295, 0.197040393948555, -0.24986808001995087, 0.509307324886322, -0.3020511865615845, -0.48767316341400146, -0.35430559515953064, -0.2977968156337738, 0.1840442419052124, 0.459640771150589, -0.5346456170082092], [0.11447549611330032, 0.1412023901939392, -0.3738914132118225, 0.4381895959377289, 0.043902695178985596, -0.11391018331050873, -0.3703663945198059, 0.4085732102394104, 0.3769382834434509, -0.042337123304605484, 0.15009856224060059, -0.16094204783439636, -0.16120542585849762, 0.3193862736225128, -0.4858279228210449, 0.00459444522857666, 0.2829791009426117, -0.19418460130691528, 0.15487632155418396, -0.419001966714859, -0.5396186113357544, 0.12951356172561646], [0.15962587296962738, -0.5659839510917664, -0.14144130051136017, -0.17350822687149048, 0.26336514949798584, -0.10391785949468613, -0.4867318570613861, -0.39886218309402466, -0.07537652552127838, 0.11317531019449234, -0.03257535770535469, -0.36719754338264465, -0.03041795827448368, -0.5321668982505798, -0.5027365684509277, -0.2609996199607849, -0.23857709765434265, 0.3196088969707489, -0.3433995246887207, -0.1001899391412735, -0.1350194215774536, -0.1493077576160431], [-0.07448601722717285, 0.5595315098762512, -0.1745160073041916, 0.3143020570278168, 0.013965612277388573, -0.3663294017314911, 0.3134442865848541, 0.23349930346012115, 0.2632790505886078, -0.2943054437637329, 0.043610263615846634, -0.24327707290649414, -0.13247792422771454, 0.0016807261854410172, -0.14723213016986847, -0.017929041758179665, -0.26267772912979126, -0.1498878449201584, -0.005160731263458729, -0.03130098804831505, -0.18178677558898926, 0.22944039106369019], [-0.12582901120185852, 0.4712858200073242, -0.42185989022254944, 0.33344438672065735, -0.3511078655719757, -0.1710982322692871, 0.3179025948047638, 0.2119050920009613, 0.25529056787490845, -0.06297256797552109, 0.07937861233949661, -0.2152334600687027, -0.1291581094264984, 0.2567550837993622, -0.2666673958301544, -0.12978915870189667, 0.031247997656464577, -0.23129399120807648, 0.0450308658182621, -0.35496675968170166, 0.026230385527014732, 0.2643740475177765], [-0.24825239181518555, 0.23026345670223236, -0.11685394495725632, 0.5131621956825256, -0.34380027651786804, -0.30093011260032654, 0.07031241804361343, 0.342029333114624, 0.3020177185535431, 0.07291014492511749, -0.017117062583565712, 0.15974928438663483, -0.4970153570175171, 0.3663336932659149, -0.4056870937347412, -0.21060281991958618, 0.32080814242362976, -0.0904705673456192, 0.1770784705877304, -0.3495686650276184, -0.2860463559627533, 0.06544993072748184], [-0.5860787630081177, -0.6191096305847168, 0.08844948559999466, -0.4612680971622467, 0.02020014077425003, -0.1557879000902176, 0.219309002161026, -0.3382728695869446, -0.1755089908838272, -0.13083773851394653, -0.5204121470451355, -0.03193217143416405, 0.19386164844036102, -0.1728491187095642, 0.0973014235496521, 0.017655149102211, -0.2601102888584137, -0.13329797983169556, 0.031976617872714996, 0.06230425834655762, 0.569555401802063, 0.045707084238529205], [0.11854290962219238, 0.23412685096263885, -0.34727707505226135, 0.42961829900741577, 0.13514626026153564, 0.11819005757570267, 0.016036653891205788, 0.5144652128219604, 0.24439771473407745, -0.3014230728149414, 0.21813635528087616, -0.14855067431926727, -0.3391185998916626, 0.018721871078014374, -0.3015764355659485, 0.03142512962222099, 0.4083082377910614, 0.3013210892677307, 0.20134958624839783, -0.49763864278793335, -0.25150951743125916, -0.10435666888952255], [0.4168476462364197, -0.24832305312156677, -0.4767310917377472, -0.12607167661190033, 0.5293264985084534, -0.10370857268571854, -0.5219390392303467, -0.41094353795051575, -0.4834468364715576, -0.09988794475793839, -0.4155290424823761, -0.42732903361320496, 0.5074372887611389, -0.4474298655986786, -0.4825296103954315, -0.34879857301712036, -0.3408324718475342, -0.3627314865589142, -0.15866896510124207, 0.2432534098625183, 0.41488945484161377, -0.14040161669254303], [0.3845844268798828, -0.3566514849662781, -0.1597379595041275, -0.26219120621681213, 0.22291934490203857, -0.039486609399318695, -0.23647452890872955, -0.5137506127357483, -0.33790555596351624, -0.24113178253173828, -0.03678327426314354, -0.35630568861961365, -0.4841768443584442, -0.275559663772583, 0.32566988468170166, -0.2432568371295929, -0.19888921082019806, -0.01388450339436531, -0.2250475138425827, 0.13862943649291992, 0.10074502974748611, -0.5449939966201782], [-0.03392386808991432, 0.5191755294799805, -0.4718332588672638, -0.08260533958673477, 0.130128875374794, 0.17226000130176544, 0.22369840741157532, 0.12040466070175171, -0.14549793303012848, -0.07574876397848129, 0.1230730339884758, -0.2063225656747818, -0.03409862518310547, -0.24263770878314972, -0.1864054948091507, -0.1387789249420166, -0.3824236989021301, 0.1799594908952713, -0.10088687390089035, 0.1959255486726761, 0.13748431205749512, -0.19053630530834198], [0.27985620498657227, 0.3348340392112732, -0.17976070940494537, -0.21667799353599548, 0.3179590404033661, -0.11883028596639633, -0.21574601531028748, 0.49424996972084045, 0.2834053635597229, -0.10812466591596603, 0.16213849186897278, -0.33445900678634644, -0.4044722318649292, -0.1828535944223404, -0.27005478739738464, -0.12836171686649323, -0.009161366149783134, -0.3471275568008423, -0.06726694107055664, -0.4194571375846863, -0.1664087474346161, 0.2134419083595276], [0.05419875681400299, -0.3851895332336426, -0.19837915897369385, -0.17682722210884094, 0.2632797956466675, -0.45157766342163086, 0.2637699246406555, -0.2398415207862854, -0.22388702630996704, -0.4313425123691559, -0.09474156051874161, -0.07236890494823456, 0.2955448031425476, -0.5284810662269592, 0.31055864691734314, -0.506133496761322, -0.24137455224990845, -0.26221832633018494, -0.38872310519218445, 0.28293076157569885, 0.1710791438817978, -0.21348421275615692]], "layers.1.bias": [-0.29543614387512207, 0.2532585859298706, -0.32607418298721313, -0.20037713646888733, -0.3925844132900238, 0.18819233775138855, -0.4416222870349884, 0.26865842938423157, -0.4841664731502533, -0.01696137897670269, 0.4963827431201935, 0.2796434462070465, 0.3579649329185486, -0.05624612420797348, -0.20614707469940186, -0.1392749398946762, 0.4904213845729828, 0.07267767190933228, -0.3645094335079193, -0.28914591670036316, -0.42602548003196716, 0.42441698908805847, 0.44046875834465027, 0.07349234819412231, -0.16318024694919586, 0.27228018641471863, -0.3628797233104706, 0.37971025705337524, 0.1944381445646286, 0.1644233912229538, -0.4444097578525543, 0.4504519999027252], "output.weight": [[-0.351961225271225, -0.47105589509010315, -0.09403994679450989, -0.44579872488975525, 0.24102620780467987, -0.3128717839717865, -0.16278305649757385, 0.30624109506607056, 0.2769380509853363, 0.042924921959638596, -0.22756309807300568, 0.23642119765281677, 0.3207492530345917, -0.38372570276260376, -0.2757534980773926, 0.13214728236198425, 0.41245681047439575, 0.31921520829200745, -0.18337446451187134, -0.33195236325263977, 0.1947142779827118, 0.4883667230606079, -0.41066327691078186, -0.4415997564792633, 0.34355854988098145, 0.48127466440200806, -0.26496621966362, -0.15064874291419983, 0.2973231077194214, -0.48432475328445435, 0.11706168204545975, 0.391105055809021], [0.1934802085161209, 0.29009491205215454, 0.20378124713897705, 0.16523581743240356, -0.2843908667564392, 0.4156613051891327, 0.4125775992870331, -0.4689692258834839, -0.017665250226855278, 0.004196399822831154, 0.5212945342063904, -0.4988018274307251, -0.49762964248657227, 0.43667224049568176, 0.15207718312740326, -0.12187598645687103, -0.37733545899391174, -0.24443143606185913, 0.14818048477172852, 0.19989438354969025, -0.2620578110218048, -0.32366371154785156, 0.336955189704895, 0.3758877217769623, -0.14860078692436218, -0.3283151090145111, 0.040872301906347275, 0.23769712448120117, -0.3468341827392578, 0.23792697489261627, -0.1836107075214386, -0.2690032720565796]], "output.bias": [0.37835243344306946, -0.3752719461917877]}